{
  "feature_names": [
    "sepal length (cm)",
    "sepal width (cm)",
    "petal length (cm)",
    "petal width (cm)"
  ],
  "target_names": [
    "setosa",
    "versicolor",
    "virginica"
  ],
  "ploy": [
    "1",
    "x0",
    "x1",
    "x2",
    "x3",
    "x0^2",
    "x0 x1",
    "x0 x2",
    "x0 x3",
    "x1^2",
    "x1 x2",
    "x1 x3",
    "x2^2",
    "x2 x3",
    "x3^2"
  ],
  "algo_coef_": [
    0.03288703136705817,
    0.0888621117849533,
    0.12398869175507649,
    -0.07275710886557177,
    -0.054664577588718996,
    0.13433935921170687,
    0.4030195405186806,
    -0.3877133076569758,
    -0.255767946086054,
    0.40754860331966486,
    -0.07181228800861197,
    -0.10881180050416053,
    -0.2884587107791216,
    -0.12555017102098323,
    -0.04185550804106556,
    0.06282750424604902,
    0.19676531724294816,
    0.0031595421355825708,
    0.3226614324992765,
    0.05368398548925972,
    0.07571691306410953,
    -0.33694169035870125,
    0.18710151479310375,
    -0.21419304246180357,
    -0.029655124724273597,
    0.36597302484517324,
    0.04584277870742673,
    -0.21173752353732736,
    -0.328580152936464,
    -0.3845016193712061,
    -0.09571453561309748,
    -0.28562742902785737,
    -0.1271482338906921,
    -0.24990432363372025,
    0.0009805920994860476,
    -0.2100562722758921,
    -0.06607785015996871,
    0.20061179286394137,
    0.4699609885479201,
    -0.3778934785954122,
    -0.2941607368365027,
    0.06296902179672981,
    0.5001962343164702,
    0.4541303239573799,
    0.4263571274122792
  ],
  "algo_intercept_": [
    0.7169892385775619,
    3.931719504209736,
    -4.6487087427873535
  ]
}